3.978115081787109375e+01 -1.415551567077636719e+01 -5.840800285339355469e+00
4.859370291233062744e-01 -1.123889461159706116e-01 3.100657090544700623e-02
-1.119776725769042969e+01 -8.952591896057128906e+00 1.176214504241943359e+01
-6.010575294494628906e+00 1.614151954650878906e+01 -1.568608474731445312e+01
3.083301544189453125e+01 -1.906882476806640625e+01 2.619984149932861328e+00
4.086133480072021484e+00 4.469348907470703125e+01 -4.848059463500976562e+01
2.388492774963378906e+01 -5.114615917205810547e+00 -7.979059696197509766e+00
-4.764699935913085938e+00 -1.051076292991638184e+00 -3.741772472858428955e-01
2.520012474060058594e+01 -1.626236343383789062e+01 1.357415580749511719e+01
-1.021752262115478516e+01 4.008230209350585938e+01 -3.393180465698242188e+01
4.482500457763671875e+01 -3.182770919799804688e+01 1.787632751464843750e+01
-4.342079758644104004e-01 -3.705474853515625000e+00 -4.090605735778808594e+00
-8.916028022766113281e+00 3.750969886779785156e+00 -3.986379206180572510e-01
-7.103147983551025391e+00 6.801957607269287109e+00 -4.708470821380615234e+00
1.070770072937011719e+01 -2.040992546081542969e+01 1.534471416473388672e+01
-1.381132411956787109e+01 6.218035221099853516e+00 -5.955092430114746094e+00
3.194841957092285156e+01 -5.469843864440917969e+00 -1.321567916870117188e+01
-3.437613010406494141e+00 3.581862449645996094e+00 -5.420186519622802734e+00
1.513582038879394531e+01 2.200277566909790039e+00 -1.096487712860107422e+01
2.257629394531250000e+01 -4.460318088531494141e+00 -3.588790416717529297e+00
1.452791500091552734e+01 -1.054901123046875000e+01 -7.700812816619873047e+00
2.065409278869628906e+01 -9.099157333374023438e+00 -2.836566448211669922e+00
7.273898124694824219e-01 2.928249835968017578e+00 -3.677991867065429688e+00
5.525597095489501953e+00 4.127071762084960938e+01 -7.730126953125000000e+01
-8.190479278564453125e+01 -1.268947677612304688e+02 1.479554443359375000e+02
1.987022399902343750e+01 3.691621398925781250e+01 -7.890554046630859375e+01
-5.487538528442382812e+01 -8.199377441406250000e+01 1.025679016113281250e+02
9.427930116653442383e-01 -6.268178820610046387e-01 4.157108366489410400e-01
-3.788919830322265625e+01 -5.651782989501953125e+01 6.893803405761718750e+01
5.489345788955688477e-01 -2.799682915210723877e-01 1.497687846422195435e-01
-3.234741687774658203e-01 -5.167634963989257812e+00 3.649426698684692383e+00
3.436037003993988037e-01 -7.394474148750305176e-01 1.041922807693481445e+00
2.495040178298950195e+00 4.192070484161376953e+00 -2.112139225006103516e+00
1.188512921333312988e+00 3.353854417800903320e-01 -2.510816335678100586e+00
-2.272550821304321289e+00 2.384389877319335938e+01 -2.267028427124023438e+01
-4.280577659606933594e+00 2.932559549808502197e-01 -1.297940611839294434e+00
-1.206705760955810547e+01 2.649991226196289062e+01 -3.191119194030761719e+01
1.245813727378845215e+00 3.304191827774047852e+00 -8.966525077819824219e+00
-1.253955650329589844e+01 2.013289642333984375e+01 -2.506231117248535156e+01
-5.469893455505371094e+00 3.371288776397705078e+00 -3.274557113647460938e+00
-8.662914276123046875e+00 3.553959369659423828e+00 -1.993253827095031738e+00
-1.439654111862182617e+00 1.244166493415832520e+00 -5.042587280273437500e+00
-6.778048992156982422e+00 8.219351768493652344e+00 -6.481305122375488281e+00
-1.400559425354003906e+00 5.616406202316284180e-01 -7.128829956054687500e-01
-1.053096199035644531e+01 3.210501480102539062e+01 -2.889102172851562500e+01
3.252005100250244141e+00 -2.604087114334106445e+00 -4.043133258819580078e-01
-8.338087081909179688e+00 1.615320396423339844e+01 -1.506416416168212891e+01
-6.332164287567138672e+00 3.585155725479125977e+00 -4.745760440826416016e+00
-1.482955169677734375e+01 2.178804779052734375e+01 -1.591342639923095703e+01
3.037755250930786133e+00 1.092938065528869629e+00 -4.163682460784912109e+00
-1.959037971496582031e+01 1.265576744079589844e+01 -1.183191108703613281e+01
1.055509924888610840e+00 -2.533526182174682617e+00 1.571738362312316895e+00
-3.385424137115478516e+00 1.105527782440185547e+01 -3.163567543029785156e+01
-9.323987007141113281e+00 1.069744586944580078e+01 -7.806706905364990234e+00
-7.725635170936584473e-01 5.459667205810546875e+00 -5.549578666687011719e+00
7.761736214160919189e-02 -1.172945380210876465e+00 1.084957599639892578e+00
-7.333380222320556641e+00 -4.349366188049316406e+00 6.277905464172363281e+00
1.094314956665039062e+01 5.420393466949462891e+00 -2.638751602172851562e+01
2.604781532287597656e+01 -1.039500427246093750e+01 -9.206258773803710938e+00
4.854565143585205078e+00 -6.196404457092285156e+00 3.644691467285156250e+00
-1.561697959899902344e+00 4.451959133148193359e-01 3.413594365119934082e-01
-3.824323177337646484e+00 3.792287111282348633e+00 -8.905090332031250000e+00
