5.207736587524414062e+01 -2.365175056457519531e+01 -5.078696012496948242e-01
6.488737463951110840e-01 -1.497391164302825928e-01 1.758068352937698364e-01
-4.415511131286621094e+00 -3.794594287872314453e+00 9.056376457214355469e+00
4.885293960571289062e+00 9.689078330993652344e+00 -1.594344711303710938e+01
3.775760650634765625e+01 -1.788714790344238281e+01 -1.595528721809387207e-01
-1.006584930419921875e+01 2.865072822570800781e+01 -3.969331741333007812e+01
1.321629714965820312e+01 2.701199650764465332e-01 -1.297025299072265625e+01
2.856926679611206055e+00 -4.890969753265380859e+00 -1.992474645376205444e-01
3.967925262451171875e+01 -2.095596313476562500e+01 1.080084419250488281e+01
-4.758972167968750000e+00 -2.931248188018798828e+00 4.113070011138916016e+00
5.127701568603515625e+01 -3.975952148437500000e+01 1.895619010925292969e+01
-1.290699958801269531e+00 -3.007001161575317383e+00 -4.576161861419677734e+00
-1.154161834716796875e+01 6.493470191955566406e+00 -4.986584186553955078e+00
-1.149598979949951172e+01 5.939011573791503906e+00 -3.883099555969238281e+00
1.276890373229980469e+01 -1.691108131408691406e+01 2.244133758544921875e+01
-2.430107307434082031e+01 6.969824790954589844e+00 -4.654630661010742188e+00
5.073909759521484375e+00 4.766886234283447266e+00 -9.874374389648437500e+00
-5.849675834178924561e-02 2.253892660140991211e+00 -3.327032804489135742e+00
9.812828063964843750e+00 1.134133219718933105e+00 -1.128375053405761719e+01
1.595765876770019531e+01 -4.712185859680175781e+00 -4.520399093627929688e+00
2.019039726257324219e+01 -1.039340591430664062e+01 -1.686812973022460938e+01
2.726285743713378906e+01 -1.659486961364746094e+01 -1.719729661941528320e+00
1.168861865997314453e+00 5.566127300262451172e-01 -3.622654199600219727e+00
8.611764907836914062e+00 1.748602104187011719e+01 -7.154915618896484375e+01
-5.757755279541015625e+01 -7.373966217041015625e+01 1.666877899169921875e+02
2.158723449707031250e+01 1.280567741394042969e+01 -7.102887725830078125e+01
-3.700194931030273438e+01 -5.536522674560546875e+01 1.183621826171875000e+02
9.984840154647827148e-01 -9.768180847167968750e-01 4.385244846343994141e-01
-2.124265098571777344e+01 -3.087711143493652344e+01 6.303068923950195312e+01
9.745676517486572266e-01 -8.557179570198059082e-01 3.196658492088317871e-01
-2.123071432113647461e+00 -6.483507633209228516e+00 1.244842529296875000e+01
4.153326153755187988e-01 -4.254449903964996338e-01 6.666519045829772949e-01
-8.202301979064941406e+00 1.818776130676269531e+00 -7.087451219558715820e-02
-1.635054349899291992e+00 -2.675159275531768799e-01 -3.103115558624267578e-01
-1.628490829467773438e+01 2.549954032897949219e+01 -3.096820068359375000e+01
-5.483219146728515625e+00 -1.221133351325988770e+00 1.761301159858703613e+00
-1.719813537597656250e+01 1.920942306518554688e+01 -3.051873588562011719e+01
-3.285542249679565430e+00 1.653319835662841797e+00 -5.664958000183105469e+00
-2.349219703674316406e+01 1.649242591857910156e+01 -2.452747726440429688e+01
3.951115608215332031e+00 -7.022016048431396484e-01 -1.801205515861511230e+00
-2.183128166198730469e+01 1.049178695678710938e+01 -5.114246368408203125e+00
-4.131470680236816406e+00 8.724257946014404297e-01 -3.663741827011108398e+00
3.996089220046997070e+00 5.282600522041320801e-01 -3.270034790039062500e+00
-1.632203102111816406e+00 8.579316139221191406e-01 -3.184682130813598633e-01
-1.232252955436706543e+00 1.613150405883789062e+01 -2.570354652404785156e+01
-2.096577405929565430e+00 8.614205121994018555e-01 -3.149778842926025391e+00
-1.034132480621337891e+01 9.596253395080566406e+00 -1.570027256011962891e+01
-6.141698360443115234e+00 3.582958221435546875e+00 -9.760258674621582031e+00
-2.691916465759277344e+01 1.596178436279296875e+01 -1.733046531677246094e+01
-6.967447996139526367e-01 2.482188701629638672e+00 -8.220454216003417969e+00
-4.519021224975585938e+01 2.001241493225097656e+01 -1.042654514312744141e+01
8.155026435852050781e+00 -4.415790557861328125e+00 -1.368395686149597168e+00
3.631327629089355469e+00 3.229666709899902344e+00 -2.674952507019042969e+01
-1.302839088439941406e+01 7.178866863250732422e+00 -4.846232891082763672e+00
-3.580304384231567383e-01 3.986361980438232422e+00 -5.252714633941650391e+00
2.646192312240600586e-01 -2.334266901016235352e+00 2.457293033599853516e+00
-6.401373863220214844e+00 -3.326165437698364258e+00 6.659979820251464844e+00
8.439249038696289062e+00 6.519303321838378906e-01 -2.601555824279785156e+01
1.983100700378417969e+01 -5.934045791625976562e+00 -1.102383899688720703e+01
7.179645538330078125e+00 -3.612781524658203125e+00 4.576604366302490234e+00
-3.204427361488342285e-01 -1.267297416925430298e-01 2.321088761091232300e-01
-3.194904518127441406e+01 1.456314468383789062e+01 -6.324596881866455078e+00
