6.068754941225051880e-02 1.472563110291957855e-02 -1.138631179928779602e-01
4.372638463973999023e-01 -4.129674434661865234e-01 -1.004886329174041748e-01
-4.781099319458007812e+00 -4.235252141952514648e-01 2.674926519393920898e+00
4.265840053558349609e+00 2.898899793624877930e+00 -4.512773990631103516e+00
1.619201600551605225e-01 -1.112909603118896484e+01 8.418938636779785156e+00
4.804544448852539062e+00 6.182378768920898438e+00 -7.020102024078369141e+00
5.530635356903076172e+00 -8.000866889953613281e+00 2.585725545883178711e+00
-1.447727084159851074e+00 1.066523671150207520e+00 3.437754511833190918e-01
3.386982202529907227e+00 -1.069336605072021484e+01 5.423000335693359375e+00
2.955888986587524414e+00 8.118407249450683594e+00 -7.544006347656250000e+00
5.232127308845520020e-01 -9.598470687866210938e+00 5.170715332031250000e+00
-1.235564351081848145e+00 -6.429240703582763672e-01 8.180738687515258789e-01
-1.985740423202514648e+00 7.137534141540527344e+00 -4.296988010406494141e+00
-1.237266063690185547e+00 3.689288139343261719e+00 -2.020928859710693359e+00
7.538446187973022461e-01 1.302593946456909180e+00 -5.155719518661499023e-01
-2.978008031845092773e+00 4.068790435791015625e+00 -2.251048564910888672e+00
7.297917842864990234e+00 2.055327892303466797e+00 -5.251472473144531250e+00
2.633014202117919922e+00 3.835885763168334961e+00 -3.879669427871704102e+00
7.050793170928955078e+00 1.645533561706542969e+00 -5.516796588897705078e+00
2.508858680725097656e+00 8.788688182830810547e-01 -2.297034025192260742e+00
4.930080413818359375e+00 4.581481933593750000e+00 -6.512249469757080078e+00
-7.465433478355407715e-01 2.319305896759033203e+00 -1.766441702842712402e+00
1.289690017700195312e+00 2.246492624282836914e+00 -2.426288127899169922e+00
1.139055919647216797e+01 9.325472831726074219e+00 -1.347822380065917969e+01
-8.502295494079589844e+00 -9.033395767211914062e+00 1.050446128845214844e+01
8.455601692199707031e+00 8.408301353454589844e+00 -1.078924274444580078e+01
-7.083425998687744141e+00 -1.018461704254150391e+01 1.039711666107177734e+01
5.122944712638854980e-01 -9.496099501848220825e-02 -1.616380959749221802e-01
-3.780848264694213867e+00 -5.592161655426025391e+00 5.389286994934082031e+00
5.311709269881248474e-02 5.241771340370178223e-01 -1.543301641941070557e-01
-1.481474637985229492e+00 -3.261905908584594727e+00 3.027087926864624023e+00
3.020962774753570557e-01 -1.798207685351371765e-02 -8.756435662508010864e-02
-1.273737192153930664e+00 5.470599532127380371e-01 4.801669418811798096e-01
7.357803583145141602e-01 -2.668024301528930664e-01 -5.454658865928649902e-01
2.522322177886962891e+00 4.067056179046630859e+00 -4.531084060668945312e+00
-6.229670643806457520e-01 -3.567175865173339844e-01 8.994879126548767090e-01
3.036016941070556641e+00 5.902451992034912109e+00 -5.497509956359863281e+00
8.841138482093811035e-01 3.451886177062988281e-01 -1.156201601028442383e+00
9.133480191230773926e-01 3.763398647308349609e+00 -3.220595598220825195e+00
-2.124846912920475006e-02 -5.414995551109313965e-01 3.250025808811187744e-01
6.500799059867858887e-01 2.320673227310180664e+00 -2.228475809097290039e+00
2.795377969741821289e+00 6.744431257247924805e-01 -2.144541740417480469e+00
-5.218545794486999512e-01 2.042304754257202148e+00 -1.296523571014404297e+00
-7.772219181060791016e-01 1.018371582031250000e+00 -2.732049524784088135e-01
4.131896972656250000e+00 4.579708099365234375e+00 -4.675482749938964844e+00
4.713907241821289062e-01 -2.592327296733856201e-01 -2.282230108976364136e-01
2.787274837493896484e+00 6.579028606414794922e+00 -6.538971424102783203e+00
1.134409785270690918e+00 2.004712581634521484e+00 -2.261627912521362305e+00
-7.360991239547729492e-01 5.941939830780029297e+00 -3.832454681396484375e+00
1.189020872116088867e+00 9.579525589942932129e-01 -1.794743061065673828e+00
2.362125873565673828e+00 1.018319368362426758e+00 -1.883494853973388672e+00
1.041193485260009766e+00 2.046452522277832031e+00 -2.247521638870239258e+00
5.475410938262939453e+00 3.897492408752441406e+00 -5.743202209472656250e+00
6.330416798591613770e-01 1.788292080163955688e-02 -2.057332992553710938e-01
3.548291623592376709e-01 2.793931245803833008e+00 -2.315527200698852539e+00
-4.496061205863952637e-01 -9.520557522773742676e-02 2.453176230192184448e-01
-5.307470560073852539e-01 1.054214596748352051e+00 -5.197003483772277832e-01
4.214351177215576172e+00 2.155752658843994141e+00 -4.134396076202392578e+00
1.331431984901428223e+00 5.117689371109008789e-01 -8.777744174003601074e-01
-1.894428580999374390e-01 8.587193489074707031e-01 -6.856608390808105469e-01
1.342348933219909668e+00 1.595368146896362305e+00 -1.312668919563293457e+00
2.832079648971557617e+00 3.594923019409179688e+00 -4.322488784790039062e+00
