4.276860132813453674e-02 2.453852212056517601e-03 -2.252828180789947510e-01
3.164111077785491943e-01 -2.838203907012939453e-01 1.474641859531402588e-01
-4.449979782104492188e+00 2.108071297407150269e-01 3.285094738006591797e+00
3.599217414855957031e+00 4.876420021057128906e+00 -8.244775772094726562e+00
1.120236396789550781e+00 -6.386683940887451172e+00 8.087897300720214844e+00
2.799133062362670898e+00 6.254913330078125000e+00 -9.729479789733886719e+00
6.822882652282714844e+00 -5.853614330291748047e+00 3.502570629119873047e+00
8.791788816452026367e-01 2.375495135784149170e-01 -6.354604959487915039e-01
5.197092533111572266e+00 -8.372036933898925781e+00 7.833273887634277344e+00
4.507365226745605469e+00 4.893850803375244141e+00 -8.777355194091796875e+00
4.707563877105712891e+00 -7.319553852081298828e+00 7.438896179199218750e+00
-1.513717025518417358e-01 1.003720611333847046e-01 -1.521273553371429443e-01
-2.283819198608398438e+00 5.124682426452636719e+00 -5.324325561523437500e+00
-1.588736176490783691e+00 2.389447927474975586e+00 -2.202054262161254883e+00
-5.574818253517150879e-01 -2.526861429214477539e+00 2.865688085556030273e+00
-2.135296106338500977e+00 2.420547008514404297e+00 -1.583174347877502441e+00
7.438063621520996094e+00 3.437005519866943359e+00 -9.013916969299316406e+00
8.991888165473937988e-01 2.603748559951782227e+00 -4.000448226928710938e+00
8.248337745666503906e+00 1.137910366058349609e+00 -7.523685455322265625e+00
2.271252393722534180e+00 4.052324220538139343e-02 -1.492426633834838867e+00
2.627761602401733398e+00 3.767423391342163086e+00 -6.848620414733886719e+00
1.845993995666503906e+00 6.826868653297424316e-01 -2.104308843612670898e+00
7.044295668601989746e-01 1.438781023025512695e+00 -2.047285795211791992e+00
7.207321166992187500e+00 7.556656837463378906e+00 -1.572570991516113281e+01
-6.243292331695556641e+00 -6.722204208374023438e+00 1.378642654418945312e+01
6.446759223937988281e+00 5.777487754821777344e+00 -1.289140987396240234e+01
-3.373177051544189453e+00 -8.763312339782714844e+00 1.409996128082275391e+01
7.598585486412048340e-01 -1.039219275116920471e-01 -5.499837398529052734e-01
-2.158559799194335938e+00 -4.834588527679443359e+00 8.170955657958984375e+00
1.074466034770011902e-01 6.536883860826492310e-02 -3.070611655712127686e-01
-1.698717623949050903e-01 -1.668497800827026367e+00 1.909099340438842773e+00
1.172008290886878967e-01 1.171596571803092957e-01 -1.713134944438934326e-01
2.527896761894226074e-01 4.634799957275390625e-01 3.264809399843215942e-02
-6.507477164268493652e-02 -2.974143028259277344e-01 -1.684473007917404175e-01
3.072538137435913086e+00 3.416799068450927734e+00 -5.353976249694824219e+00
-2.547915279865264893e-01 2.537718713283538818e-01 -9.066553711891174316e-01
1.448752522468566895e+00 4.780731201171875000e+00 -7.098974704742431641e+00
-3.509673774242401123e-01 1.213549852371215820e+00 -1.705923795700073242e+00
5.437141656875610352e-01 2.168399333953857422e+00 -2.916425228118896484e+00
7.754427194595336914e-01 -8.281750679016113281e-01 4.884311184287071228e-02
7.039242982864379883e-01 1.014620184898376465e+00 -1.682255506515502930e+00
1.478058576583862305e+00 4.072272479534149170e-01 -1.923951864242553711e+00
1.131823658943176270e+00 9.609909355640411377e-02 -2.857121527194976807e-01
1.191844195127487183e-01 2.222656309604644775e-01 -2.163433432579040527e-01
4.264578819274902344e+00 4.271911144256591797e+00 -7.893241405487060547e+00
-2.890521287918090820e-02 6.483533382415771484e-01 -6.220969557762145996e-01
7.111167907714843750e-01 4.152074337005615234e+00 -6.970420360565185547e+00
-2.797414064407348633e+00 1.602709293365478516e+00 -5.281140208244323730e-01
2.556486368179321289e+00 3.046755552291870117e+00 -6.098495483398437500e+00
1.186810612678527832e+00 2.124436378479003906e+00 -2.792966842651367188e+00
7.469543218612670898e-01 1.836824655532836914e+00 -2.528554201126098633e+00
6.301502585411071777e-01 4.563468694686889648e-01 -3.776264488697052002e-01
1.672905921936035156e+00 2.245145320892333984e+00 -4.650953769683837891e+00
-9.594790339469909668e-01 9.453740119934082031e-01 -8.519349098205566406e-01
3.520569205284118652e-01 3.395568847656250000e+00 -4.476847648620605469e+00
-3.034503161907196045e-01 -6.032118946313858032e-02 5.141994953155517578e-01
-3.208178281784057617e+00 -2.727488279342651367e-01 1.614768266677856445e+00
3.217734098434448242e+00 2.607523679733276367e+00 -6.138700485229492188e+00
5.744155049324035645e-01 1.483153462409973145e+00 -2.134641170501708984e+00
1.408679723739624023e+00 1.908663272857666016e+00 -3.509216547012329102e+00
-1.311072945594787598e+00 2.055324077606201172e+00 -2.177267789840698242e+00
-3.291262686252593994e-01 1.450179696083068848e+00 -1.509006500244140625e+00
