-2.180146723985671997e-01 2.395040728151798248e-02 1.553245186805725098e-01
1.120986223220825195e+00 -3.706344068050384521e-01 -3.746751248836517334e-01
-1.429501628875732422e+01 4.384767055511474609e+00 6.569315910339355469e+00
4.078197479248046875e+00 1.270934772491455078e+01 -1.862592887878417969e+01
3.627265930175781250e+01 -2.309138679504394531e+01 -6.139454841613769531e-01
-8.850257873535156250e+00 6.812444210052490234e+00 -8.838700294494628906e+00
2.564822769165039062e+01 -7.524287700653076172e+00 -1.049917221069335938e+01
2.830381155014038086e+00 -1.827572226524353027e+00 -2.886426210403442383e+00
3.413562774658203125e+01 -2.501731109619140625e+01 1.605055618286132812e+01
2.009009170532226562e+01 2.524601745605468750e+01 -4.103232574462890625e+01
5.774936294555664062e+01 -4.346914291381835938e+01 1.440027523040771484e+01
-2.781208157539367676e-01 -4.173331737518310547e+00 -6.601993560791015625e+00
-1.447727870941162109e+01 1.085952949523925781e+01 -3.101546287536621094e+00
-7.739763736724853516e+00 4.825356960296630859e+00 -3.498132228851318359e+00
7.874671936035156250e+00 -2.033043670654296875e+01 1.839002227783203125e+01
-1.669176292419433594e+01 6.932833194732666016e+00 -6.712645053863525391e+00
1.930550003051757812e+01 -2.881582498550415039e+00 -1.059658718109130859e+01
5.716291666030883789e-01 1.951928734779357910e+00 -5.986765384674072266e+00
1.509859848022460938e+01 7.006180286407470703e+00 -1.751620674133300781e+01
7.718028068542480469e+00 1.500404119491577148e+00 -1.718134045600891113e+00
3.052802085876464844e+01 -5.609917640686035156e+00 -1.771782875061035156e+01
1.947110748291015625e+01 -1.048602008819580078e+01 -3.694140195846557617e+00
1.805376291275024414e+00 2.791043996810913086e+00 -3.579531431198120117e+00
1.569477844238281250e+01 3.716427230834960938e+01 -7.383094787597656250e+01
-7.890685272216796875e+01 -9.138664245605468750e+01 1.428244018554687500e+02
2.991660499572753906e+01 3.065274047851562500e+01 -7.440096282958984375e+01
-5.111577606201171875e+01 -5.611916732788085938e+01 9.322235107421875000e+01
1.010188817977905273e+00 -6.877784729003906250e-01 1.242710053920745850e-01
-3.323865509033203125e+01 -4.045744323730468750e+01 6.262921524047851562e+01
2.517026662826538086e-01 -3.425204455852508545e-01 2.769156098365783691e-01
-9.855704307556152344e+00 -1.360330486297607422e+01 1.980514335632324219e+01
9.470807760953903198e-02 -3.439818322658538818e-01 5.946453809738159180e-01
-3.830598592758178711e+00 8.702444076538085938e+00 -2.920968770980834961e+00
9.814595580101013184e-01 -1.426617980003356934e+00 4.067140221595764160e-01
-6.135782241821289062e+00 2.195859146118164062e+01 -2.111808204650878906e+01
-1.862245678901672363e+00 1.886593848466873169e-01 -4.258521080017089844e+00
-2.104875564575195312e+00 2.952082252502441406e+01 -3.415538787841796875e+01
-9.522193908691406250e+00 5.529520511627197266e+00 -2.899217367172241211e+00
-1.987629699707031250e+01 2.394005966186523438e+01 -2.355553054809570312e+01
-4.763621985912322998e-01 1.277610301971435547e+00 -4.108219146728515625e+00
-1.737022781372070312e+01 1.012641906738281250e+01 -4.645005702972412109e+00
-4.723436236381530762e-01 6.101121902465820312e-01 -1.291171550750732422e+00
-4.075824260711669922e+00 4.851380348205566406e+00 -3.694020032882690430e+00
-1.398632049560546875e+00 9.274809956550598145e-01 -1.870692729949951172e+00
7.974274158477783203e+00 2.256492805480957031e+01 -2.977463912963867188e+01
-8.099489212036132812e-01 -3.496424436569213867e+00 2.624839305877685547e+00
-5.397562980651855469e+00 1.521911144256591797e+01 -1.306112957000732422e+01
-7.853833198547363281e+00 9.317059516906738281e+00 -1.169998931884765625e+01
-2.308799743652343750e+01 2.828749084472656250e+01 -2.541311645507812500e+01
-4.046736240386962891e+00 2.837468862533569336e+00 -1.006235480308532715e+00
-2.346399307250976562e+01 1.951910781860351562e+01 -1.440473175048828125e+01
1.251087856292724609e+01 -5.581398487091064453e+00 -5.718616962432861328e+00
4.238144874572753906e+00 8.481986999511718750e+00 -2.483508110046386719e+01
-3.540895462036132812e+00 6.674378395080566406e+00 -5.166084289550781250e+00
-1.041155576705932617e+00 6.552388191223144531e+00 -5.606979370117187500e+00
-3.325788974761962891e-01 -1.977523207664489746e+00 2.824901580810546875e+00
-8.198094367980957031e+00 -1.928740382194519043e+00 6.807834148406982422e+00
1.215507888793945312e+01 5.948148727416992188e+00 -3.077958488464355469e+01
2.491641807556152344e+01 -8.386236190795898438e+00 -9.408288955688476562e+00
9.221511334180831909e-02 -2.241562604904174805e+00 9.070895910263061523e-01
-2.314561128616333008e+00 3.107282161712646484e+00 -6.339670717716217041e-02
-2.033645248413085938e+01 8.135346412658691406e+00 4.547935426235198975e-01
